#ifndef INFO_H
#define INFO_H

#include "../include/common.cuh"

const char aminoacids[21] = {'A', 'C', 'D', 'E', 'F', 'G', 'H', 'I', 'K', 'L', 'M', 'N', 'P', 'Q', 'R', 'S', 'T', 'V', 'W', 'Y', 'Z'}; // The last means stop
const char codons_start_idx[21] = {0, 4, 6, 8, 10, 12, 16, 18, 21, 23, 29, 30, 32, 36, 38, 44, 50, 54, 58, 59, 61};
const char syn_codons_num[21] = {4, 2, 2, 2, 2, 4, 2, 3, 2, 6, 1, 2, 4, 2, 6, 6, 4, 4, 1, 2, 3};
const char codons[TOTAL_CODON_NUM * CODON_SIZE + 1] = "GCGGCCGCAGCU\
UGCUGU\
GACGAU\
GAGGAA\
UUCUUU\
GGGGGCGGAGGU\
CACCAU\
AUCAUAAUU\
AAGAAA\
CUCCUGCUUCUAUUAUUG\
AUG\
AACAAU\
CCGCCCCCUCCA\
CAGCAA\
CGGCGCCGACGUAGGAGA\
UCGAGCUCCAGUUCAUCU\
ACGACCACAACU\
GUGGUCGUAGUU\
UGG\
UACUAU\
UAGUGAUAA";

const float codons_weight[TOTAL_CODON_NUM] = {0.305603f, 0.599079f, 0.803529f, 1.000000f,
                                              0.610008f, 1.000000f,
                                              0.535625f, 1.000000f,
                                              0.427360f, 1.000000f,
                                              0.681450f, 1.000000f,
                                              0.269319f, 0.434428f, 0.496554f, 1.000000f,
                                              0.557513f, 1.000000f,
                                              0.563985f, 0.609035f, 1.000000f,
                                              0.711322f, 1.000000f,
                                              0.209692f, 0.403127f, 0.465818f, 0.510887f, 0.993799f, 1.000000f,
                                              1.000000f,
                                              0.677728f, 1.000000f,
                                              0.305642f, 0.388926f, 0.762581f, 1.000000f,
                                              0.459094f, 1.000000f,
                                              0.087765f, 0.126120f, 0.148487f, 0.298484f, 0.450218f, 1.000000f,
                                              0.373477f, 0.427447f, 0.602112f, 0.625192f, 0.816121f, 1.000000f,
                                              0.403752f, 0.616780f, 0.899168f, 1.000000f,
                                              0.500541f, 0.523094f, 0.562900f, 1.000000f,
                                              1.000000f,
                                              0.765190f, 1.000000f,
                                              0.489272f, 0.630320f, 1.000000f};

const float cps[(TOTAL_CODON_NUM - STOP_CODON_NUM) * (TOTAL_CODON_NUM - STOP_CODON_NUM)] = {0.007921f, -0.159742f, 0.060698f, -0.138859f, 0.136743f, -0.215710f, 0.168960f, 0.062641f, 0.098233f, 0.010846f, 0.126679f, 0.216052f, -0.177875f, 0.206215f, 0.145390f, -0.349879f, 0.138680f, 0.294515f, -0.371977f, -0.211951f, -0.296323f, 0.066745f, -0.066025f, 0.328555f, 0.419913f, 0.301949f, 0.463095f, 0.079648f, 0.069582f, -0.114634f, -0.001538f, -0.194432f, -0.019448f, 0.350488f, 0.136400f, 0.184135f, 0.354837f, 0.165538f, -0.010138f, 0.257913f, -0.566750f, -0.253367f, -0.229063f, -0.242649f, -0.023939f, -0.320337f, -0.123345f, -0.292669f, 0.023748f, -0.142207f, -0.088113f, -0.545727f, -0.195636f, -0.275604f, 0.069146f, -0.315995f, 0.335561f, -0.242223f, 0.105020f, 0.213987f, 0.249491f, -0.665184f, -0.045127f, -0.340589f, 0.060133f, -0.206716f, 0.158939f, -0.379309f, -0.341521f, -0.577880f, -0.397958f, -0.008642f, -0.009028f, -0.713509f, -0.357538f, -0.578574f, 0.060930f, -0.280977f, -0.159738f, 0.483775f, 0.050680f, 0.486100f, 0.522935f, 0.198703f, 0.072665f, -0.266752f, 0.088549f, -0.122363f, -0.239858f, -0.141257f, 0.252330f, 0.194855f, 0.205974f, -0.815613f, -0.179136f, -0.408150f, -0.096715f, -0.331089f, -0.088067f, -0.542165f, -0.160300f, -0.876950f, 0.190902f, 0.051644f, -0.047583f, -0.260996f, 0.083029f, 0.020608f, 0.079669f, -0.321830f, 0.070762f, 0.207032f, 0.416475f, 0.104560f, 0.374776f, -0.201557f, -0.011502f, -0.253663f, 0.036075f, -0.164423f, -0.187966f, -0.124497f, -0.342349f, -0.362978f, -0.012760f, -0.249502f, 0.365382f, 0.062030f, 0.115751f, 0.128596f, 0.105558f, 0.158022f, -0.009921f, 0.231515f, -0.161142f, 0.037998f, 0.089985f, -0.039606f, -0.100249f, 0.088910f, -0.161821f, -0.179381f, -0.175744f, -0.027307f, -0.056947f, 0.004057f, -0.060527f, -0.198879f, -0.014410f, 0.007875f, -0.042440f, 0.088205f, 0.070667f, 0.113451f, -0.404251f, -0.015832f, 0.173699f, 0.052258f, -0.013892f, -0.033994f, -0.379026f, 0.069329f, -0.263013f, -0.027548f, 0.340446f, 0.421970f, 0.041614f, 0.140347f, -0.040886f, 0.094838f, -0.041429f, 0.005225f, -0.165576f, -0.349301f, -0.064860f, -0.244997f, -0.114557f, -0.324730f, 0.112260f, -0.297055f, 0.055667f, 0.040180f, 0.109445f, -0.056809f, 0.249547f, 0.011852f, 0.404108f, -0.434827f, -0.057083f, -0.006671f, 0.063164f, -0.060192f, 0.132272f, -0.111585f, -0.254761f, -0.275312f, 0.031136f, -0.112282f, 0.350089f, 0.123947f, -0.067528f, -0.004893f, -0.384826f, 0.037433f, -0.231419f, -0.239631f, -0.111940f, -0.377067f, 0.087013f, -0.153710f, 0.045142f, 0.211890f, -0.239455f, -0.157385f, -0.232901f, -0.312055f, 0.133632f, 0.005257f, 0.143442f, -0.193144f, 0.118516f, 0.078572f, -0.030808f, -0.255109f, 0.161471f, -0.408292f, -0.231554f, -0.006676f, -0.343566f, 0.345559f, -0.304723f, 0.013385f, 0.167955f, -0.220431f, 0.050167f, -0.158308f, 0.206390f, 0.132503f, 0.223606f, -0.010227f, 0.229493f, 0.010932f, -0.037640f, -0.087295f, -0.174217f, -0.261148f, -0.318802f, -0.368044f, 0.163078f, 0.169986f, -0.149829f, -0.186871f, -0.172681f, -0.246048f, -0.004922f, 0.183810f, -0.034690f, -0.253313f, -0.415962f, -0.244856f, 0.167109f, 0.064867f, -0.031095f, 0.196834f, 0.021972f, 0.152507f, 0.122859f, 0.345521f, -0.010134f, 0.126851f, -0.170295f, -0.063367f, -0.216329f, 0.183443f, -0.000862f, 0.091305f, -0.192964f, 0.219363f, -0.160195f, -0.190079f, 0.143266f, 0.224777f, 0.602636f, 0.284512f, 0.281590f, 0.550216f, 0.153187f, -0.073387f, -0.077422f, 0.149718f, 0.212570f, -0.051358f, -0.034156f, 0.147995f, -0.034454f, 0.127351f, 0.039495f, 0.026583f, -0.254992f, -0.299064f, 0.061972f, -0.191875f, 0.081260f, 0.130999f, 0.184952f, 0.250685f, 0.107868f, 0.038752f, 0.221845f, -0.083703f, -0.139213f, 0.108853f, 0.084197f, 0.218628f, 0.067624f, -0.049623f, -0.092182f, 0.182523f, 0.142644f, -0.060849f, 0.189992f, 0.018472f, -0.120058f, 0.045667f, -0.150589f, -0.025368f, -0.224821f, -0.008045f, 0.197111f, -0.029822f, 0.034943f, -0.092059f, 0.011296f, 0.094561f, -0.131046f, 0.022399f, -0.076141f, -0.136600f, 0.389360f, 0.182377f, -0.162173f, -0.297735f, -0.081935f, -0.012274f, 0.151243f, 0.240974f, 0.276255f, -0.181010f, -0.378834f, 0.041020f, -0.313410f, 0.040188f, -0.435529f, 0.075159f, 0.056464f, 0.056780f, 0.075712f, -0.161801f, -0.019245f, -0.048160f, 0.247637f, -0.096579f, 0.151968f, -0.053020f, -0.188011f, -0.059870f, -0.476588f, -0.148336f, -0.271233f, -0.132884f, 0.089038f, 0.216508f, -0.114055f, -0.131809f, -0.173040f, -0.113722f, -0.049464f, -0.141098f, -0.179695f, -0.059992f, -0.286744f, -0.091052f, 0.209431f, 0.169809f, 0.047632f, -0.078212f, -0.041175f, 0.277141f, 0.125578f, -0.023543f, -0.057174f, 0.036494f, -0.196661f, -0.135773f, 0.050415f, 0.012414f, 0.191245f, 0.058769f, -0.099892f, 0.041803f, 0.112499f, 0.009837f, 0.242808f, 0.199129f, -0.016566f, 0.385269f, -0.009108f, 0.528146f, 0.103473f, 0.107388f, -0.007582f, 0.155403f, 0.016107f, 0.106375f, -0.266958f, 0.104753f, -0.068195f, 0.186088f, 0.033800f, 0.212907f, -0.155524f, -0.194419f, -0.138756f, -0.024051f, 0.038006f, 0.140765f, 0.057959f, 0.105304f, 0.065895f, 0.010687f, 0.175472f, -0.227486f, -0.036445f, 0.052111f, 0.066179f, 0.073252f, 0.059653f, 0.053515f, 0.049400f, 0.147344f, 0.060267f, 0.044291f, 0.056349f, -0.129710f, -0.106341f, 0.077799f, -0.082096f, 0.033226f, -0.248644f, -0.037442f, -0.001820f, -0.259662f, -0.011813f, -0.267372f, 0.116461f, 0.173309f, -0.006713f, -0.149117f, -0.015155f, 0.103578f, -0.154651f, 0.091480f, -0.103073f, -0.185106f, -0.114311f, -0.408692f, 0.016370f, -0.071909f, 0.117624f, -0.193680f, -0.161138f, 0.025489f, -0.132226f, 0.030276f, -0.122070f, -0.020621f, 0.073951f, -0.049475f, -0.059412f, -0.069986f, -0.084591f, 0.019096f, 0.133723f, -0.081340f, 0.094758f, -0.020967f, -0.180253f, 0.031788f, 0.166338f, 0.022389f, 0.282265f, -0.055955f, 0.121108f, -0.142770f, 0.030420f, -0.032507f, 0.119220f, -0.041468f, -0.035447f, 0.259952f, -0.049832f, 0.122621f, 0.152518f, -0.308795f, 0.218692f, 0.296634f, -0.177735f, -0.156295f, -0.119993f, -0.018379f, 0.034679f, 0.283487f, 0.356261f, 0.153697f, 0.204685f, -0.067738f, -0.083789f, -0.207922f, -0.062010f, -0.099821f, -0.101426f, 0.313476f, 0.282677f, 0.192620f, 0.248725f, 0.171599f, 0.060792f, 0.189726f, -0.160125f, -0.058873f, -0.094654f, -0.210482f, 0.057674f, 0.154812f, -0.356642f, 0.091738f, -0.155447f, -0.243127f, -0.050695f, -0.199875f, -0.084958f, -0.232940f, 0.017639f, -0.149777f, -0.051471f, -0.116275f, -0.137598f, 0.144366f, 0.046858f, -0.049863f, -0.110582f, -0.082420f, 0.022724f, -0.092079f, 0.074138f, -0.014738f, 0.014331f, -0.006386f, -0.003050f, -0.219947f, 0.017660f, 0.006134f, -0.035305f, -0.008484f, 0.074695f, -0.099820f, -0.165884f, -0.036909f, 0.092556f, 0.083059f, 0.054579f, -0.050710f, -0.106005f, 0.066232f, -0.107715f, 0.130609f, -0.101592f, -0.059566f, 0.077172f, 0.004288f, 0.053638f, -0.050005f, -0.200179f, -0.024910f, -0.152701f, -0.078318f, -0.106276f, 0.162826f, -0.209868f, -0.029424f, -0.072465f, 0.059048f, 0.102290f, -0.117489f, 0.266358f, -0.099737f, 0.368430f, -0.118798f, -0.067295f, 0.119592f, -0.053281f, 0.077517f, 0.081233f, 0.038419f, -0.019317f, 0.018263f, 0.064193f, 0.053482f, -0.066825f, -0.022068f, -0.738356f, -0.447327f, -0.599867f, -0.629368f, -0.002887f, -0.083922f, -0.261989f, -0.265732f, -0.319759f, -0.314010f, 0.089630f, -0.173096f, -0.604115f, -0.451949f, -0.601960f, -0.178094f, 0.232719f, 0.168754f, 0.289005f, -0.090408f, 0.181434f, 0.418461f, 0.426582f, 0.124504f, -0.166204f, -0.070769f, -0.080326f, -0.091547f, 0.017675f, 0.199616f, 0.382303f, 0.333292f, -0.243992f, 0.472292f, 0.039761f, 0.070697f, 0.175693f, 0.164893f, -0.056230f, 0.255171f, 0.052428f, 0.285158f, 0.193078f, 0.199123f, -0.278902f, 0.196029f, -0.055386f, 0.183526f, -0.311545f, -0.230082f, 0.050961f, 0.319257f, -0.012011f, 0.212558f, -0.539564f, -0.172164f, -0.612786f, -0.302173f, -0.089061f, -0.014800f, -0.259662f, 0.232444f, 0.443317f, 0.191198f, 0.213327f, 0.120492f, -0.022306f, 0.150394f, 0.145154f, 0.075170f, 0.206998f, 0.240907f, -0.128812f, 0.097336f, 0.215150f, 0.168342f, 0.208812f, -0.149052f, -0.159719f, -0.065149f, -0.323380f, -0.024936f, -0.573649f, -0.362260f, -0.035885f, -0.213561f, -0.098931f, -0.234439f, 0.148684f, 0.178160f, -0.163173f, -0.339242f, -0.341973f, -0.055006f, 0.172420f, -0.083203f, -0.200703f, -0.207840f, -0.101032f, 0.240645f, -0.147906f, -0.031747f, -0.464925f, -0.147174f, -0.149735f, 0.089644f, -0.133437f, 0.147282f, -0.184503f, 0.106747f, 0.148677f, -0.055769f, 0.060954f, -0.302018f, -0.115427f, 0.000397f, 0.243409f, 0.067099f, 0.313824f, 0.056443f, 0.155203f, 0.034429f, -0.199489f, -0.184957f, -0.108729f, -0.415177f, -0.098341f, -0.283201f, -0.222358f, -0.395367f, -0.030116f, -0.207506f, 0.605898f, 0.701859f, -0.437566f, -0.205651f, -0.402735f, -0.856125f, 0.073444f, 0.039471f, -0.359255f, -0.097072f, -0.404260f, 0.134858f, 0.219537f, 0.589784f, 0.528468f, 0.513429f, 0.497200f, 0.214330f, 0.309892f, -0.110139f, -0.005280f, -0.131375f, 0.605950f, 0.702491f, 0.458652f, 0.284455f, 0.090162f, 0.040742f, -0.001310f, 0.133953f, 0.181997f, 0.168959f, -0.020514f, -0.087651f, -0.083718f, 0.009842f, 0.125063f, -0.202505f, -0.185882f, 0.038964f, 0.071670f, -0.262430f, -0.002055f, -0.261485f, -0.216138f, -0.627265f, -0.182847f, -0.494738f, -0.250066f, 0.014799f, -0.156251f, -0.515653f, 0.043774f, -0.136614f, 0.058991f, 0.088816f, 0.310028f, -0.048939f, -0.078418f, -0.108412f, -0.085143f, -0.290216f, -0.194656f, -0.205651f, 0.047723f, -0.094036f, -0.128427f, 0.393169f, 0.305591f, -0.155516f, 0.072182f, -0.155434f, -0.035233f, -0.097526f, 0.211180f, 0.004274f, 0.057643f, -0.043031f, -0.178282f, -0.255839f, -0.184880f, -0.033601f, 0.015301f, -0.474676f, 0.351357f, 0.125425f, 0.120570f, 0.411512f, 0.312914f, -0.063283f, 0.424474f, -0.361734f, 0.500866f, 0.053615f, -0.047579f, -0.103743f, 0.243498f, 0.230550f, 0.305857f, 0.096982f, 0.115331f, -0.115662f, -0.038882f, -0.000041f, 0.019936f, -0.207837f, -0.197841f, -0.164769f, -0.130137f, 0.215263f, 0.190592f, 0.124788f, -0.265898f, -0.465821f, -0.148985f, -0.418567f, 0.015446f, 0.014821f, -0.161588f, -0.138201f, 0.066273f, -0.052476f, 0.031536f, 0.418732f, -0.079962f, -0.217935f, 0.072105f, -0.470371f, 0.205440f, -0.155686f, -0.293723f, 0.111602f, -0.118997f, 0.016329f, 0.123724f, 0.023451f, 0.119679f, -0.009239f, 0.035809f, 0.057922f, -0.112884f, 0.075796f, 0.162884f, 0.303344f, -0.155142f, 0.121467f, 0.094775f, -0.222288f, 0.071559f, 0.032297f, 0.096042f, 0.133626f, -0.073124f, -0.177401f, 0.276259f, 0.302002f, 0.084926f, 0.247646f, -0.101887f, 0.348850f, -0.135838f, -0.006858f, 0.353408f, -0.178225f, 0.164670f, -0.019465f, -0.356425f, -0.581315f, -0.261275f, -0.454042f, 0.069878f, -0.100256f, 0.160235f, -0.025756f, 0.343470f, -0.045811f, 0.326018f, -0.080418f, -0.067954f, 0.235069f, 0.115495f, -0.056563f, 0.133448f, -0.165722f, -0.580661f, 0.068503f, 0.030883f, -0.124388f, 0.455335f, -0.124765f, -0.248941f, 0.194806f, -0.070070f, 0.214941f, -0.020001f, -0.105179f, -0.055440f, -0.531720f, -0.071947f, -0.056892f, -0.057758f, -0.029846f, 0.060452f, -0.027231f, -0.198630f, -0.569645f, -0.232075f, -0.156677f, -0.130375f, -0.653063f, -0.102102f, -0.985957f, -0.305711f, -0.719121f, 0.087908f, -0.524296f, 0.005890f, -0.261563f, -0.130834f, -0.011812f, -0.314947f, -0.101226f, 0.024153f, -0.177637f, 0.139251f, -0.124857f, 0.083541f, 0.091033f, 0.457980f, 0.041659f, 0.373662f, -0.084139f, -0.008965f, -0.144875f, -0.307074f, -0.156192f, -0.249570f, -0.235180f, 0.066056f, -0.087766f, 0.037544f, -0.005782f, -0.079756f, -0.046563f, 0.054170f, -0.275779f, -0.089296f, -0.104807f, -0.271413f, -0.048510f, 0.116162f, -0.086427f, 0.072661f, -0.028460f, 0.048873f, 0.324285f, 0.191769f, 0.065027f, -0.204324f, -0.043485f, -0.510212f, -0.298856f, -0.033445f, 0.077167f, 0.254891f, 0.166438f, -0.271639f, -0.222720f, -0.391858f, -0.088541f, 0.115775f, 0.054716f, 0.152196f, 0.220404f, -0.090782f, 0.370522f, -0.176625f, 0.111736f, -0.160727f, 0.040770f, 0.072326f, -0.101301f, 0.035450f, -0.014224f, 0.119273f, 0.072247f, 0.237019f, 0.176385f, -0.201935f, 0.045574f, -0.083781f, 0.104254f, 0.008073f, 0.009228f, 0.083062f, 0.210847f, 0.211051f, 0.034202f, 0.066414f, -0.143520f, 0.100006f, -0.011412f, -0.002134f, -0.006646f, 0.045413f, 0.116091f, 0.028916f, 0.197604f, -0.002898f, 0.100933f, 0.018635f, 0.015426f, -0.000793f, 0.080698f, -0.093584f, -0.035713f, -0.257459f, -0.114620f, 0.035366f, -0.177276f, -0.020662f, -0.105395f, 0.211942f, 0.185635f, -0.045756f, -0.187498f, -0.099583f, 0.343630f, -0.178823f, 0.187023f, 0.049195f, -0.097496f, -0.020329f, 0.047500f, 0.216952f, 0.643802f, 0.203766f, -0.301362f, -0.271064f, 0.166577f, -0.359778f, 0.058350f, -0.332212f, 0.092103f, 0.134640f, -0.208377f, -0.177115f, -0.042204f, -0.086301f, -0.025107f, -0.023986f, -0.056319f, 0.055456f, -0.004529f, -0.188625f, 0.076310f, -0.348370f, -0.310229f, -0.412598f, -0.377560f, -0.060470f, -0.159842f, -0.059868f, -0.089066f, -0.023307f, -0.159534f, -0.092857f, -0.280275f, -0.010978f, -0.084809f, -0.213830f, -0.064614f, -0.201052f, -0.048261f, 0.360420f, 0.069375f, 0.141176f, 0.434464f, 0.433220f, 0.165197f, -0.157137f, -0.078971f, -0.094490f, -0.248730f, -0.193249f, 0.241287f, 0.432295f, 0.276946f, -0.349549f, -0.252747f, -0.352128f, -0.094166f, -0.027911f, -0.073802f, -0.192657f, 0.095950f, -0.238272f, -0.131225f, 0.129854f, 0.253906f, -0.323584f, 0.041449f, -0.033351f, 0.210086f, -0.331614f, -0.254083f, 0.072893f, 0.323371f, 0.119522f, 0.276992f, -0.276668f, -0.079229f, -0.374756f, -0.243190f, -0.203128f, -0.072911f, -0.308454f, 0.107288f, -0.309451f, -0.108982f, -0.402612f, 0.148393f, 0.084894f, -0.091566f, -0.127886f, -0.010480f, -0.156422f, 0.039050f, 0.190398f, -0.105401f, -0.185187f, -0.168789f, -0.499552f, 0.044767f, -0.104580f, -0.199589f, 0.222128f, -0.204598f, -0.034834f, 0.045872f, -0.188316f, 0.206297f, 0.036293f, 0.115942f, 0.050200f, -0.103461f, 0.082851f, 0.080272f, 0.121975f, 0.516033f, 0.016602f, -0.097759f, -0.060585f, -0.032313f, -0.231194f, 0.713036f, -0.009885f, 0.631223f, -0.121062f, 0.188470f, 0.119266f, 0.328461f, 0.020586f, 0.116170f, -0.066079f, 0.334518f, 0.155340f, 0.189649f, -0.211117f, 0.156649f, -0.047644f, -0.011831f, -0.371112f, -0.060597f, -0.393511f, 0.203198f, 0.206916f, 0.230493f, 0.242338f, 0.364025f, 0.193330f, 0.248066f, 0.071691f, -0.056814f, 0.105701f, 0.102154f, 0.007690f, 0.162392f, 0.143227f, -0.080415f, 0.219842f, 0.092123f, 0.120430f, 0.252056f, 0.079252f, 0.079539f, -0.003647f, -0.190434f, -0.059730f, -0.410086f, -0.354618f, 0.002958f, -0.134634f, 0.235707f, -0.095276f, 0.149073f, 0.038182f, -0.231317f, -0.368442f, -0.344337f, 0.216610f, -0.002671f, 0.090908f, 0.078897f, 0.038292f, 0.151806f, -0.165494f, -0.043141f, -0.130646f, 0.051600f, -0.329614f, -0.299019f, -0.106704f, -0.491762f, 0.140672f, -0.378284f, 0.004035f, 0.117958f, -0.262704f, -0.121523f, -0.258222f, -0.072901f, 0.208564f, 0.313671f, 0.097062f, 0.235968f, -0.034125f, -0.078069f, -0.027887f, 0.186385f, 0.141668f, 0.104437f, 0.241347f, -0.122195f, -0.240116f, 0.155058f, 0.029052f, 0.077773f, 0.068919f, -0.117180f, -0.041619f, -0.102668f, 0.304593f, 0.081672f, 0.061165f, 0.218764f, 0.161560f, -0.099955f, -0.115881f, -0.145671f, 0.222064f, 0.197569f, -0.061690f, 0.116404f, -0.020773f, 0.111119f, -0.280242f, -0.190342f, -0.161472f, 0.043639f, -0.049687f, -0.113652f, -0.030310f, -0.038755f, 0.078558f, 0.107895f, 0.121858f, -0.062472f, -0.216751f, -0.325949f, -0.225456f, 0.024281f, 0.034780f, -0.159653f, 0.057292f, -0.339938f, -0.018401f, -0.242079f, -0.359936f, 0.084766f, -0.015797f, 0.058961f, -0.091605f, -0.255419f, -0.011463f, -0.141412f, -0.057009f, -0.331600f, -0.009858f, -0.152945f, -0.227845f, -0.239380f, -0.094774f, -0.109840f, 0.060973f, 0.151347f, -0.089776f, -0.039658f, -0.000893f, -0.077915f, 0.003038f, 0.077445f, -0.012390f, -0.126421f, -0.014667f, -0.109958f, -0.185565f, -0.136139f, -0.008755f, 0.181115f, 0.063893f, -0.143171f, -0.206169f, -0.064939f, 0.215756f, 0.065243f, 0.311073f, 0.033054f, -0.106945f, 0.100809f, -0.051645f, 0.046014f, 0.087405f, -0.109683f, 0.013357f, -0.003673f, -0.050838f, -0.112758f, -0.001152f, -0.410583f, -0.082397f, -0.304703f, 0.194665f, 0.092043f, 0.137772f, 0.279275f, -0.089017f, 0.259377f, 0.190548f, -0.005416f, -0.001074f, -0.119571f, 0.129846f, -0.051124f, 0.119017f, 0.002607f, 0.039495f, 0.085636f, 0.182949f, 0.025783f, 0.082718f, -0.305835f, -0.227524f, -0.391550f, -0.323993f, 0.376244f, 0.354984f, -0.070627f, 0.088584f, -0.098374f, -0.335547f, 0.286661f, 0.167094f, -0.119225f, -0.118360f, -0.194035f, 0.151489f, -0.178241f, -0.120656f, 0.261847f, 0.319279f, 0.184253f, 0.010864f, 0.019418f, -0.022756f, -0.129255f, -0.049397f, -0.162054f, -0.170852f, -0.135399f, 0.005395f, 0.091948f, 0.194400f, -0.435071f, 0.047408f, -0.205631f, -0.218848f, -0.301389f, -0.551968f, -0.408866f, 0.115862f, 0.297437f, -0.270727f, -0.220926f, -0.365024f, 0.246307f, 0.248389f, 0.248562f, 0.304348f, 0.002184f, 0.155996f, 0.219757f, 0.428974f, 0.108983f, 0.234274f, -0.096116f, -0.032829f, -0.020156f, -0.135856f, -0.000557f, 0.058588f, 0.154222f, 0.368510f, 0.204816f, 0.208387f, -0.193308f, -0.022478f, -0.212037f, 0.177073f, 0.047817f, 0.176415f, 0.083884f, -0.007677f, -0.098541f, 0.050067f, 0.179511f, 0.250964f, -0.099965f, 0.106020f, 0.046710f, -0.033298f, 0.254033f, -0.083552f, -0.002272f, 0.112118f, 0.079956f, 0.253021f, -0.002354f, 0.182320f, -0.242310f, -0.138870f, -0.036823f, 0.076335f, 0.023281f, 0.050134f, 0.339499f, -0.213785f, -0.212042f, 0.139770f, -0.019394f, 0.508119f, 0.193861f, 0.531943f, -0.172005f, -0.072194f, -0.228365f, 0.007530f, 0.001880f, -0.305301f, -0.179765f, -0.158587f, -0.422026f, 0.112687f, -0.231560f, -0.160011f, -0.244367f, 0.245988f, 0.089966f, 0.328799f, -0.155321f, -0.195671f, 0.051601f, -0.105488f, 0.173232f, 0.085431f, 0.002036f, 0.056186f, 0.370933f, 0.411991f, -0.002365f, 0.046375f, -0.313135f, -0.167053f, 0.680689f, 0.201845f, 0.123362f, 0.167058f, 0.278518f, 0.101849f, 0.056463f, 0.120668f, -0.214053f, -0.365176f, -0.120009f, -0.895560f, -0.734973f, 0.397091f, 0.031963f, 0.235868f, 0.117675f, 0.432462f, 0.411730f, -0.556733f, -0.491319f, -0.620659f, 0.194504f, 0.189142f, 0.063287f, 0.104080f, -0.259665f, -0.115443f, 0.248265f, -0.008951f, 0.656336f, 0.000860f, -0.817714f, -0.798538f, 0.387892f, -0.703919f, 0.584510f, -0.779370f, 0.369650f, 0.405117f, -0.235455f, -0.322036f, -0.397429f, -0.206950f, 0.195410f, 0.022282f, -0.030856f, 0.066159f, 0.312886f, 0.367274f, 0.473653f, -0.008500f, -0.203001f, 0.001020f, -0.087258f, -0.026279f, 0.127007f, -0.101845f, -0.070923f, 0.023694f, 0.018629f, -0.089902f, -0.023293f, -0.120307f, -0.107616f, 0.037271f, -0.192216f, 0.014595f, 0.030007f, -0.094167f, 0.103422f, -0.224686f, -0.133806f, -0.130407f, 0.152195f, 0.321507f, -0.028653f, 0.238292f, 0.110725f, -0.033980f, 0.026386f, -0.061856f, 0.019821f, 0.323079f, 0.076170f, 0.059631f, 0.070462f, 0.113635f, 0.015743f, 0.133440f, -0.121506f, 0.350618f, 0.098471f, 0.058901f, 0.065689f, 0.286671f, 0.072952f, 0.244533f, 0.013585f, 0.104804f, -0.001745f, -0.062258f, -0.127529f, 0.063909f, -0.150071f, 0.031018f, -0.117076f, 0.007820f, -0.262837f, 0.237592f, 0.030027f, 0.079738f, 0.035389f, -0.127291f, -0.073522f, -0.238599f, -0.015998f, 0.020496f, -0.039635f, -0.046512f, 0.026404f, 0.012835f, -0.053612f, 0.011887f, -0.023224f, -0.148849f, 0.020475f, -0.087946f, -0.016253f, -0.067115f, -0.059414f, -0.020417f, -0.072028f, -0.066570f, -0.153479f, 0.071259f, 0.229735f, 0.066482f, 0.207233f, 0.005660f, -0.060656f, 0.059618f, -0.053407f, -0.114336f, 0.281951f, -0.100053f, 0.032681f, 0.095891f, 0.163729f, 0.163737f, 0.155502f, 0.204089f, 0.263967f, 0.001068f, 0.093795f, 0.079478f, 0.179945f, 0.020468f, 0.037009f, 0.083285f, 0.107811f, 0.017655f, 0.117632f, 0.070130f, 0.131427f, 0.073676f, 0.038084f, -0.110938f, -0.108027f, -0.176931f, 0.170042f, -0.104835f, -0.093031f, 0.133529f, 0.181992f, 0.110465f, 0.124080f, -0.305711f, -0.418218f, 0.028055f, 0.017080f, 0.043931f, 0.064480f, -0.323355f, -0.230623f, -0.064701f, -0.037286f, -0.078660f, 0.087934f, -0.020843f, -0.011192f, 0.062548f, 0.075071f, 0.146287f, 0.337625f, 0.332741f, -0.319764f, -0.165862f, -0.313145f, -0.151291f, -0.393638f, -0.315696f, 0.128918f, 0.291461f, 0.158461f, -0.263491f, 0.112482f, -0.233625f, -0.135809f, -0.098932f, -0.059093f, -0.171317f, -0.105081f, -0.116395f, -0.106165f, 0.095835f, 0.134137f, -0.488072f, 0.099300f, -0.263907f, 0.067802f, -0.386113f, -0.431081f, 0.052019f, 0.195486f, -0.069285f, 0.048062f, 0.131302f, 0.117935f, 0.046752f, 0.080973f, -0.545739f, -0.197880f, -0.240801f, 0.064456f, -0.027225f, 0.071932f, -0.066338f, 0.101484f, -0.067376f, 0.071383f, -0.040439f, -0.068888f, 0.028052f, -0.122285f, 0.075513f, 0.126847f, 0.038385f, 0.039881f, -0.076478f, -0.071252f, 0.037625f, -0.074342f, 0.011329f, 0.032920f, -0.072839f, 0.048762f, 0.084304f, 0.341528f, 0.353043f, 0.205121f, -0.259795f, -0.312964f, 0.000000f, -0.000861f, 0.000583f, -0.105942f, 0.179354f, 0.020991f, -0.063850f, -0.151746f, 0.062634f, -0.091976f, -0.301875f, -0.222715f, -0.076615f, 0.022599f, 0.078761f, 0.020755f, 0.096829f, -0.050760f, 0.119112f, -0.030266f, -0.079308f, 0.054589f, -0.007840f, 0.141745f, -0.168140f, -0.046624f, 0.004336f, 0.015213f, 0.011829f, 0.000000f, 0.047079f, -0.037583f, -0.433702f, -0.215282f, -0.266475f, -0.161726f, -0.024320f, 0.131845f, -0.123005f, -0.109796f, -0.231382f, -0.164388f, -0.002756f, -0.047152f, -0.174102f, -0.149957f, -0.217205f, -0.197048f, 0.076958f, 0.055586f, 0.050724f, -0.052401f, -0.015765f, 0.209048f, 0.132199f, 0.149238f, -0.049314f, 0.071692f, -0.080107f, -0.120225f, 0.076837f, 0.000625f, 0.154476f, 0.026200f, -0.184883f, -0.073217f, 0.013873f, -0.012003f, 0.140317f, 0.153608f, -0.107597f, 0.145012f, -0.304135f, 0.136219f, 0.153449f, 0.174000f, -0.105159f, 0.315016f, 0.028304f, 0.180852f, -0.146414f, -0.004114f, -0.038237f, 0.130639f, 0.056223f, 0.114151f, -0.247181f, 0.154969f, -0.166726f, 0.002329f, 0.130770f, 0.150621f, 0.069171f, 0.239267f, 0.159324f, 0.123565f, 0.084662f, -0.066347f, -0.047534f, 0.115160f, 0.046036f, 0.114276f, 0.105104f, 0.031679f, 0.010497f, 0.312161f, 0.242444f, 0.157353f, -0.046463f, -0.122382f, -0.004757f, -0.024070f, -0.040916f, 0.048422f, -0.239291f, -0.058152f, 0.046700f, -0.131245f, -0.108647f, -0.078765f, 0.066966f, 0.070473f, -0.000424f, -0.096502f, -0.032908f, 0.182639f, -0.184023f, 0.105697f, -0.026804f, -0.245144f, -0.061434f, -0.167303f, -0.057180f, 0.062742f, -0.095353f, -0.026326f, -0.150884f, -0.023549f, 0.052444f, -0.130811f, 0.068224f, 0.009429f, -0.096473f, -0.039997f, -0.066447f, -0.007118f, -0.109153f, -0.092209f, 0.073415f, -0.016074f, 0.081663f, -0.099470f, -0.094348f, -0.066081f, -0.084335f, -0.376073f, 0.112835f, -0.159355f, -0.124077f, -0.341372f, 0.082377f, 0.035080f, 0.148171f, -0.010176f, -0.079898f, -0.011795f, 0.193498f, 0.323248f, 0.274850f, -0.638788f, 0.152097f, 0.148421f, -0.143747f, 0.194667f, -0.075287f, -0.046480f, -0.103031f, 0.049909f, 0.526324f, 0.197395f, 0.607570f, 0.301604f, -0.041787f, -0.015156f, -0.003037f, -0.083523f, -0.069245f, 0.082588f, 0.022904f, 0.093244f, 0.597145f, 0.096059f, 0.481889f, 0.247147f, 0.123103f, -0.222293f, -0.149881f, -0.242336f, -0.225389f, -0.402211f, -0.308500f, -0.335126f, -0.090804f, -0.334136f, -0.176395f, -0.708320f, 0.010154f, -0.484232f, 0.006548f, -0.183555f, 0.347523f, -0.151060f, -0.175877f, 0.278311f, 0.147967f, -0.581738f, -0.293432f, -0.209421f, -0.083659f, -0.010505f, 0.061204f, -0.209716f, -0.215266f, -0.360646f, -0.319069f, 0.125875f, 0.129669f, -0.564732f, -0.159364f, -0.241067f, -0.219901f, -0.288114f, -0.032991f, 0.335483f, 0.320347f, 0.250315f, 0.332323f, 0.283882f, 0.117671f, -0.319069f, -0.190182f, -0.208768f, 0.067587f, -0.106161f, 0.294579f, 0.126427f, 0.187526f, -0.846523f, -0.639920f, -0.471850f, -0.378253f, -0.401514f, -0.422328f, -0.324398f, -0.034649f, -0.197914f, -0.103893f, -0.072401f, -0.057477f, 0.017883f, 0.143718f, 0.121326f, 0.122497f, 0.020955f, 0.319793f, 0.240992f, 0.280068f, 0.258112f, 0.178803f, 0.130368f, -0.072898f, 0.338588f, -0.029960f, -0.186328f, -0.141645f, -0.213710f, 0.264288f, 0.093894f, 0.255403f, 0.347332f, -0.028704f, 0.042150f, 0.074358f, 0.204362f, 0.088178f, 0.063347f, -0.010492f, -0.230504f, 0.318395f, 0.133032f, 0.134486f, 0.094891f, 0.131916f, 0.165467f, -0.083560f, -0.191129f, -0.139429f, -0.402185f, -0.251101f, -0.099411f, -0.013920f, -0.036225f, -0.211413f, 0.060184f, -0.011346f, -0.238027f, -0.240622f, -0.131034f, 0.105596f, -0.021482f, 0.045381f, 0.198542f, -0.000444f, 0.194856f, -0.057710f, 0.216622f, 0.483313f, 0.327670f, -0.553348f, -0.585905f, 0.149867f, -0.589739f, 0.135489f, -0.388167f, 0.181346f, 0.119785f, -0.050744f, 0.045992f, -0.124113f, -0.205884f, 0.161454f, -0.024715f, 0.279055f, 0.128377f, -0.112123f, -0.109889f, 0.041035f, -0.195159f, -0.338115f, 0.022384f, -0.127864f, 0.229508f, -0.093165f, -0.163683f, -0.034384f, 0.075911f, 0.024874f, -0.077488f, 0.134009f, -0.211282f, 0.003732f, -0.095295f, 0.054974f, -0.174034f, -0.125695f, -0.154660f, 0.072020f, -0.032937f, 0.207595f, -0.012161f, -0.249380f, -0.133860f, -0.211581f, -0.112465f, 0.062469f, 0.012629f, 0.032366f, 0.043201f, 0.080325f, 0.175546f, -0.432149f, 0.002869f, 0.178711f, 0.110945f, -0.186561f, -0.056823f, -0.054425f, -0.138283f, -0.076908f, 0.199853f, 0.333441f, -0.055654f, -0.067457f, -0.151306f, 0.002259f, 0.073419f, 0.066481f, -0.074175f, -0.010929f, 0.037665f, 0.136945f, -0.151504f, -0.308748f, -0.011352f, -0.194167f, 0.179228f, -0.078053f, 0.073794f, 0.318518f, -0.020670f, 0.028738f, -0.111499f, 0.281995f, -0.089326f, 0.097245f, -0.005821f, -0.013526f, -0.148944f, 0.075496f, 0.259196f, -0.102462f, 0.183815f, 0.199758f, -0.352357f, 0.148818f, 0.257695f, -0.095307f, 0.063642f, -0.170784f, -0.117352f, 0.045768f, 0.115173f, 0.204270f, 0.065513f, 0.126212f, -0.025384f, -0.004338f, -0.256695f, -0.161429f, -0.016082f, 0.323622f, 0.030741f, 0.000138f, -0.065157f, 0.500371f, 0.049794f, 0.438975f, 0.307911f, 0.196606f, 0.225753f, -0.108753f, -0.333895f, 0.102783f, -0.021864f, -0.272909f, -0.084884f, 0.007280f, -0.256973f, -0.032232f, -0.359156f, 0.017874f, -0.411433f, 0.091164f, -0.179914f, 0.057545f, -0.229426f, -0.127245f, 0.257060f, 0.118160f, 0.066436f, -0.032097f, -0.049381f, 0.026964f, -0.245709f, 0.077783f, -0.123177f, 0.038860f, 0.038526f, 0.048200f, -0.106646f, -0.095896f, 0.014663f, 0.048283f, -0.051200f, 0.055476f, -0.176904f, -0.089513f, -0.033758f, 0.132229f, 0.009814f, 0.088178f, -0.052253f, -0.307872f, 0.141863f, -0.250221f, 0.015796f, 0.002980f, -0.000161f, 0.098883f, -0.012065f, 0.059998f, 0.246022f, -0.369996f, 0.010292f, -0.003148f, 0.039796f, -0.197154f, 0.034644f, -0.260868f, 0.059294f, -0.124106f, 0.100634f, 0.061086f, 0.012227f, 0.144288f, -0.161719f, 0.327284f, -0.042140f, -0.013155f, 0.157828f, -0.065213f, 0.121764f, 0.088200f, 0.194965f, -0.066945f, 0.100688f, -0.037792f, 0.053402f, -0.113775f, -0.081497f, -0.148538f, -0.092129f, -0.440808f, -0.455455f, 0.342401f, -0.051799f, -0.132552f, -0.237294f, 0.015065f, -0.122498f, 0.136128f, 0.417834f, -0.580830f, -0.338418f, -0.075665f, -0.932914f, 0.156361f, -0.094135f, -0.370121f, 0.005016f, -0.233953f, -0.056935f, 0.130068f, 0.483619f, 0.582576f, 0.447602f, 0.374118f, 0.135769f, 0.153646f, 0.071069f, -0.239553f, 0.175072f, 0.162941f, 0.615115f, 0.095946f, -0.079790f, 0.568457f, -0.092260f, 0.678710f, 0.242026f, -0.234896f, -0.381045f, 0.042166f, -0.586782f, 0.732581f, -0.249691f, 0.138584f, 0.024007f, 0.227507f, 0.156804f, -0.037278f, -0.486308f, 0.098146f, -0.662821f, -0.171304f, -0.361979f, 0.021439f, -0.504424f, -0.385258f, 0.206258f, 0.310866f, -0.762428f, -0.548230f, -0.064145f, -0.367445f, 0.469373f, 0.204665f, -0.243813f, 0.008047f, 0.180808f, -0.380194f, -0.235664f, -0.297382f, 0.098048f, 0.153997f, -0.063547f, -0.366514f, 0.356093f, 0.375022f, -0.055550f, 0.217805f, -0.233623f, -0.058326f, -0.036393f, 0.218207f, 0.129486f, -0.047146f, -0.117991f, -0.038406f, -0.412913f, -0.020010f, -0.054602f, -0.050839f, 0.010086f, 0.252539f, -0.060778f, -0.049973f, 0.171979f, 0.120528f, 0.621516f, 0.664405f, -0.045404f, 0.496070f, -0.173806f, -0.361571f, 0.149605f, 0.721383f, 0.035519f, 0.334376f, 0.067872f, 0.162514f, 0.115959f, 0.141515f, 0.234561f, -0.175407f, -0.113377f, -0.410897f, -0.245827f, -0.006188f, 0.392625f, 0.598607f, 0.208574f, -0.306654f, -0.273873f, 0.156810f, -0.351662f, 0.621625f, 0.091410f, 0.148868f, 0.011562f, 0.100693f, -0.064298f, -0.153807f, 0.148535f, -0.190380f, -0.009268f, 0.243192f, -0.636074f, -0.296720f, 0.263345f, -0.141257f, 0.413485f, -0.090363f, -0.347280f, -0.125746f, -0.083894f, -0.044361f, 0.063591f, 0.463716f, 0.115864f, -0.111664f, 0.278830f, 0.038241f, 0.179121f, -0.819658f, -0.133870f, -0.005561f, -0.153646f, 0.265759f, -0.143478f, -0.134813f, -0.045404f, -0.372972f, -0.532193f, 0.053126f, -0.067255f, 0.090330f, 0.082695f, -0.412258f, 0.274429f, 0.001771f, -0.052576f, 0.258861f, 0.069222f, -0.028787f, -0.210194f, 0.051265f, -0.382271f, 0.171938f, -0.156120f, 0.010306f, 0.323303f, 0.120532f, 0.067765f, 0.215290f, 0.048422f, 0.086271f, 0.348291f, 0.487732f, 0.126491f, 0.097136f, -0.094173f, 0.059965f, -0.184566f, -0.403909f, 0.315375f, 0.428725f, 0.173583f, 0.529572f, 0.080005f, 0.139793f, -0.000742f, -0.190144f, 0.064983f, -0.352350f, -0.296484f, 0.112673f, -0.255436f, -0.059779f, -0.037972f, 0.094111f, 0.124592f, -0.227566f, -0.487466f, -0.329005f, -0.158249f, -0.049328f, -0.206123f, -0.267757f, -0.026993f, 0.016732f, -0.048911f, 0.404262f, 0.027423f, 0.605499f, -0.599971f, -0.640769f, -0.011904f, -0.532141f, 0.243661f, -0.170432f, 0.079589f, 0.074221f, -0.231717f, 0.042173f, -0.257824f, -0.107778f, 0.195727f, 0.333205f, 0.316164f, 0.354919f, 0.303071f, 0.248871f, 0.185421f, 0.172826f, 0.052582f, 0.142092f, 0.101556f, -0.078228f, -0.381116f, -0.022734f, -0.107099f, 0.024115f, -0.030350f, -0.004084f, 0.238520f, -0.531564f, -0.124823f, -0.196610f, -0.501932f, -0.125994f, 0.021166f, -0.310598f, 0.237853f, -0.174271f, 0.054486f, 0.265984f, 0.255043f, 0.183645f, 0.177162f, 0.308440f, 0.011525f, -0.143923f, -0.117625f, -0.093830f, -0.172579f, 0.357780f, 0.341018f, 0.216265f, 0.249430f, 0.214318f, 0.093626f, 0.355824f, -0.016414f, 0.141419f, -0.074546f, -0.118505f, -0.132738f, 0.185071f, -0.059388f, -0.245491f, -0.169652f, 0.107562f, -0.115983f, 0.014048f, -0.128950f, 0.066611f, -0.051580f, 0.113216f, -0.121209f, 0.106152f, -0.247150f, -0.154464f, -0.074902f, -0.145551f, -0.084458f, 0.007620f, -0.009012f, 0.015402f, -0.303333f, -0.133521f, -0.036849f, 0.041139f, 0.001900f, 0.041380f, -0.147770f, 0.089790f, -0.258852f, 0.037562f, 0.040683f, 0.134357f, -0.046519f, -0.133030f, -0.020758f, 0.155344f, 0.009251f, 0.104885f, -0.045791f, -0.360660f, -0.060366f, -0.347887f, 0.002784f, 0.034105f, -0.097555f, 0.057320f, 0.167138f, 0.105037f, -0.076642f, -0.249367f, -0.050405f, -0.046551f, -0.101052f, -0.107461f, -0.203790f, -0.380263f, -0.430649f, -0.319186f, 0.193066f, 0.289446f, -0.006818f, 0.139810f, -0.290368f, 0.130936f, 0.043946f, -0.169848f, 0.008261f, -0.000941f, 0.112497f, 0.059073f, -0.146367f, -0.085273f, 0.095227f, -0.033139f, -0.078343f, -0.192518f, -0.131953f, 0.015984f, -0.589818f, -0.124458f, -0.586632f, 0.040815f, -0.057052f, -0.339836f, -0.167469f, -0.027393f, -0.218364f, 0.079595f, 0.170047f, -0.302518f, -0.273403f, -0.271520f, -0.639144f, 0.442252f, 0.318036f, -0.188237f, 0.162486f, -0.216879f, 0.151973f, 0.175309f, 0.123449f, 0.392475f, 0.155150f, 0.379229f, 0.141990f, 0.089878f, 0.179223f, -0.027760f, 0.045113f, 0.379035f, 0.415842f, 0.179815f, 0.162757f, 0.317632f, 0.179295f, -0.056808f, 0.239078f, 0.002610f, -0.311466f, 0.227712f, 0.157236f, 0.191765f, -0.058211f, -0.029260f, -0.258724f, -0.064734f, -0.299729f, -0.030328f, -0.409043f, -0.104926f, -0.359308f, 0.010891f, -0.507083f, 0.137416f, -0.216536f, 0.246867f, 0.274499f, 0.197923f, -0.345304f, 0.168756f, -0.134595f, -0.042694f, 0.086659f, 0.020147f, 0.109603f, 0.151031f, 0.125957f, 0.034237f, -0.182246f, -0.110068f, 0.171885f, 0.215200f, 0.145716f, -0.026904f, -0.073736f, -0.085363f, -0.001847f, 0.252933f, 0.027903f, -0.049463f, 0.139280f, -0.322839f, -0.413118f, -0.234717f, -0.465219f, -0.308310f, -0.387665f, -0.099116f, 0.242217f, 0.212039f, -0.474026f, -0.133969f, -0.273011f, -0.443344f, -0.197891f, -0.125265f, 0.118372f, 0.225801f, 0.062535f, -0.251270f, 0.175853f, -0.000541f, -0.153208f, 0.361059f, -0.186021f, 0.264916f, -0.156188f, -0.025843f, 0.224702f, 0.276644f, 0.084059f, 0.160583f, -0.034805f, -0.172054f, 0.103831f, -0.138689f, -0.049810f, -0.109060f, 0.090240f, -0.455294f, -0.262410f, -0.288387f, -0.231156f, -0.190475f, -0.193848f, -0.438572f, -0.340106f, -0.218584f, -0.395059f, -0.033053f, 0.011756f, -0.386616f, -0.320745f, -0.290316f, -0.122108f, -0.028756f, -0.202110f, 0.424003f, 0.201790f, 0.302726f, 0.373613f, 0.312366f, -0.195448f, -0.191880f, -0.161169f, -0.137578f, -0.052543f, -0.109743f, 0.279673f, 0.181618f, 0.145011f, -0.599573f, -0.219010f, -0.349700f, -0.384491f, -0.202116f, -0.042554f, -0.367341f, -0.017721f, 0.104335f, 0.074129f, -0.000414f, 0.057358f, 0.037432f, 0.163580f, 0.017678f, 0.146528f, -0.092285f, 0.012995f, 0.115940f, 0.253764f, 0.166724f, 0.400322f, -0.107689f, -0.086034f, -0.057838f, -0.013276f, -0.176653f, -0.170144f, -0.240900f, 0.351690f, 0.248188f, 0.254787f, 0.201617f, 0.186721f, 0.179733f, 0.325014f, 0.363113f, 0.292881f, 0.334441f, 0.084958f, -0.006792f, 0.390708f, 0.249046f, 0.379944f, 0.221796f, -0.237607f, -0.205534f, -0.142575f, 0.166439f, -0.041476f, -0.330511f, 0.016627f, -0.243992f, -0.384585f, -0.163937f, -0.545495f, 0.056581f, 0.017199f, -0.266530f, -0.057099f, 0.037430f, -0.412420f, -0.319709f, -0.354853f, -0.568605f, -0.676791f, -0.286369f, -0.122093f, -0.093803f, -0.119867f, -0.322762f, -0.139070f, -0.312325f, -0.197946f, 0.017840f, -0.257858f, 0.005470f, -0.008389f, -0.190412f, -0.030530f, 0.012633f, -0.028077f, -0.214779f, 0.015038f, 0.148647f, 0.183570f, 0.076744f, -0.020499f, -0.083822f, -0.001344f, -0.011206f, -0.553388f, -0.009454f, -0.252212f, 0.246672f, 0.102668f, -0.147555f, -0.061149f, -0.057295f, -0.024909f, 0.014171f, 0.183399f, -0.031281f, -0.080347f, 0.154963f, -0.261283f, -0.118292f, 0.015407f, -0.288526f, 0.038122f, -0.227350f, -0.071702f, -0.029974f, -0.149982f, 0.119567f, 0.046955f, 0.117618f, 0.193537f, 0.033262f, 0.069903f, -0.040671f, 0.052746f, 0.077137f, 0.172200f, 0.298368f, 0.174593f, 0.194064f, 0.010845f, 0.021687f, -0.043637f, 0.453574f, -0.297686f, 0.315904f, 0.324455f, 0.161370f, -0.000237f, -0.032155f, -0.077714f, 0.189280f, -0.056320f, -0.063939f, -0.363070f, -0.158672f, -0.116269f, -0.056493f, -0.523321f, 0.122312f, -0.308769f, 0.170387f, 0.040721f, 0.198185f, 0.229982f, 0.196115f, 0.204426f, 0.249250f, -0.259986f, -0.151445f, -0.079795f, 0.052834f, -0.065121f, 0.012344f, -0.066859f, -0.165705f, 0.024770f, -0.007077f, 0.026079f, 0.136945f, 0.027755f, 0.120647f, -0.048623f, -0.212482f, -0.086942f, -0.321657f, -0.228847f, -0.037163f, -0.124004f, -0.027498f, -0.055934f, 0.185107f, 0.221388f, -0.150927f, -0.330356f, -0.220290f, 0.135370f, 0.277708f, 0.119366f, 0.289469f, -0.050347f, 0.226345f, -0.272019f, 0.356705f, 0.181652f, 0.188370f, -0.280953f, -0.428119f, 0.085117f, -0.422869f, 0.157844f, -0.338359f, 0.150213f, 0.211482f, -0.089774f, -0.035018f, -0.052427f, 0.069867f, 0.280421f, 0.153064f, 0.078517f, 0.143044f, -0.133792f, -0.099491f, -0.073290f, 0.323224f, -0.297006f, 0.108939f, -0.304569f, 0.260139f, -0.055589f, 0.066310f, 0.056885f, 0.137618f, -0.011864f, -0.109384f, 0.008968f, 0.219728f, 0.088649f, 0.146042f, -0.305126f, 0.245669f, 0.282917f, -0.306875f, 0.179800f, -0.384655f, 0.013718f, 0.113612f, 0.098344f, 0.375007f, 0.193685f, 0.265723f, -0.052077f, -0.021005f, 0.018341f, -0.084743f, 0.013002f, 0.431791f, 0.310482f, 0.264267f, -0.012822f, 0.322332f, 0.130971f, 0.114444f, -0.162974f, 0.314541f, -0.372981f, 0.244863f, 0.077220f, -0.043100f, -0.028543f, -0.230704f, -0.151302f, 0.021833f, -0.307577f, -0.205300f, -0.378787f, -0.152389f, -0.516872f, 0.213363f, -0.168922f, 0.292661f, -0.279615f, -0.011456f, 0.044303f, 0.178977f, -0.220536f, -0.071437f, -0.175660f, -0.077468f, -0.091077f, -0.006941f, -0.209724f, -0.134424f, -0.213523f, -0.273377f, -0.091637f, -0.252700f, -0.340559f, -0.331310f, -0.325373f, 0.076427f, -0.085669f, -0.258887f, 0.393943f, 0.231196f, 0.288853f, 0.383572f, 0.263280f, -0.390845f, -0.278817f, -0.070538f, -0.441604f, -0.091854f, -0.232615f, 0.181060f, 0.318561f, 0.125700f, -0.418799f, -0.232894f, -0.416801f, -0.135307f, -0.235327f, -0.046843f, -0.452368f, -0.367631f, -0.652786f, -0.158204f, -0.057270f, 0.096064f, -0.240907f, 0.032031f, -0.129891f, -0.007541f, -0.057532f, -0.014872f, 0.199198f, 0.360175f, 0.113911f, 0.339599f, -0.077543f, 0.082052f, -0.073231f, -0.043999f, -0.063467f, 0.016547f, -0.140640f, 0.061928f, -0.275837f, 0.059404f, -0.361576f, 0.193138f, 0.093431f, -0.039064f, 0.053617f, 0.069109f, 0.048242f, -0.230082f, 0.098581f, 0.051914f, -0.055241f, 0.150072f, -0.139908f, 0.007901f, 0.140127f, -0.324393f, 0.099202f, -0.074952f, 0.101925f, -0.003933f, -0.190092f, -0.144250f, -0.135541f, -0.073229f, -0.003230f, -0.242055f, 0.132986f, 0.078380f, 0.125295f, -0.036652f, -0.067330f, 0.186421f, 0.045855f, 0.045235f, -0.092411f, 0.071461f, -0.084779f, -0.021516f, -0.137216f, 0.367305f, 0.408997f, -0.081630f, 0.019785f, -0.091905f, 0.119696f, 0.068744f, -0.045394f, -0.085765f, -0.176918f, 0.107975f, -0.233449f, 0.043039f, -0.292838f, 0.194617f, -0.269618f, 0.079154f, -0.095274f, 0.119843f, 0.104880f, 0.236626f, 0.215327f, 0.204127f, -0.269307f, -0.078205f, -0.026138f, 0.080994f, -0.026888f, 0.110571f, 0.198309f, 0.079469f, 0.109417f, -0.090068f, -0.037183f, 0.238109f, -0.138550f, -0.097495f, -0.041517f, -0.153987f, -0.076221f, -0.348623f, -0.355469f, -0.147667f, -0.267449f, -0.199567f, -0.095332f, 0.356139f, 0.372382f, -0.298121f, -0.370444f, -0.201360f, -0.044593f, -0.130236f, -0.109229f, 0.122746f, -0.114255f, 0.068067f, -0.204724f, -0.336776f, -0.371424f, -0.251077f, -0.447349f, -0.304839f, -0.014595f, -0.362369f, 0.138474f, -0.129772f, 0.192857f, 0.225770f, -0.113210f, 0.111938f, -0.120348f, 0.071200f, 0.106653f, 0.044184f, 0.095382f, 0.112929f, -0.032046f, -0.012205f, -0.064812f, 0.137794f, 0.197524f, 0.236757f, -0.106591f, 0.014440f, -0.265118f, 0.155988f, 0.103225f, 0.391279f, 0.301851f, -0.225898f, -0.028364f, 0.364312f, 0.031831f, 0.101847f, -0.252660f, -0.188161f, -0.143822f, -0.263688f, 0.011880f, -0.247241f, 0.134723f, 0.140016f, 0.175753f, 0.168537f, 0.115404f, 0.123573f, -0.386180f, -0.190113f, 0.009271f, 0.067936f, -0.072132f, 0.063877f, 0.154735f, -0.175961f, -0.158147f, 0.165714f, 0.033265f, 0.484662f, 0.110913f, -0.171541f, -0.208768f, 0.056890f, 0.016343f, -0.042635f, -0.020142f, -0.215248f, -0.162762f, -0.274742f, -0.348045f, -0.039427f, -0.054989f, -0.025589f, -0.235253f, 0.312054f, -0.022307f, 0.377940f, -0.071551f, -0.194562f, -0.175191f, -0.183914f, -0.587352f, -0.202667f, -0.136284f, -0.174644f, -0.130346f, -0.003554f, -0.053727f, -0.260945f, -0.387709f, -0.254641f, -0.022133f, -0.114506f, -0.135235f, -0.211574f, -0.133927f, 0.037253f, 0.097071f, 0.044276f, 0.430600f, -0.028683f, 0.375841f, 0.449443f, 0.222550f, 0.025252f, -0.172496f, 0.216576f, -0.285225f, -0.233795f, 0.003962f, 0.215742f, 0.286228f, 0.175628f, -0.720744f, -0.154029f, -0.313928f, -0.135584f, -0.267015f, -0.105228f, -0.421633f, 0.099993f, -0.633816f, 0.082698f, 0.061450f, 0.112981f, -0.297332f, 0.083293f, 0.079191f, 0.164100f, -0.316579f, -0.079215f, -0.051750f, 0.511695f, 0.153483f, 0.349417f, -0.342721f, -0.092835f, -0.316313f, -0.053059f, -0.117385f, 0.061802f, -0.353692f, 0.197969f, -0.330229f, 0.109534f, -0.311445f, 0.072339f, -0.189796f, -0.024153f, 0.083842f, 0.184787f, -0.019246f, -0.113049f, 0.153080f, 0.084586f, -0.138144f, 0.053264f, -0.396506f, -0.233253f, 0.036398f, -0.341880f, 0.122870f, -0.255693f, -0.095787f, 0.049506f, 0.114430f, 0.144831f, 0.088063f, -0.008499f, -0.188703f, -0.078584f, 0.037041f, 0.018805f, 0.113866f, 0.323759f, 0.095404f, 0.043773f, 0.101230f, 0.196555f, -0.022627f, 0.378299f, 0.205345f, 0.721496f, 0.288829f, 0.167261f, 0.091069f, 0.161924f, -0.027898f, 0.197968f, -0.130135f, 0.120013f, -0.039894f, 0.204663f, -0.175086f, 0.058481f, -0.123598f, 0.094044f, -0.303929f, -0.067525f, -0.263402f, 0.090883f, 0.002309f, 0.081481f, -0.049944f, 0.193730f, -0.010194f, 0.158191f, 0.149801f, 0.118626f, -0.015468f, 0.001297f, -0.181994f, -0.058000f, 0.257251f, -0.110555f, -0.021089f, -0.086944f, 0.216608f, 0.183586f, 0.073360f, 0.061560f, 0.028196f, -0.222783f, 0.060754f, -0.329969f, -0.301341f, 0.176835f, -0.221467f, 0.275550f, -0.209119f, 0.130343f, 0.172356f, -0.164704f, -0.177736f, -0.188379f, -0.125731f, 0.024655f, 0.163949f, 0.096014f, -0.164604f, 0.073543f, -0.218577f, 0.145147f, -0.263241f, 0.365838f, -0.501645f, -0.311599f, 0.003909f, -0.308952f, 0.282270f, -0.316701f, 0.133295f, 0.289603f, -0.356044f, -0.017061f, -0.309811f, 0.047802f, -0.112552f, 0.240335f, -0.193276f, 0.212539f, 0.088816f, 0.128631f, 0.115233f, 0.100332f, -0.015428f, -0.019095f, -0.007914f, -0.020670f, 0.012402f, 0.111689f, -0.065384f, 0.080703f, -0.036580f, -0.012112f, 0.008171f, 0.289515f, 0.013560f, -0.186677f, -0.011876f, 0.112633f, -0.068779f, -0.132759f, 0.115031f, -0.004138f, -0.069753f, 0.046813f, 0.140829f, 0.195866f, -0.059752f, 0.084134f, -0.022284f, -0.122005f, 0.000000f, -0.026735f, 0.017721f, -0.170377f, 0.208524f, -0.084997f, 0.019649f, -0.097798f, 0.041884f, -0.503166f, -0.648018f, -0.257898f, -0.703413f, 0.164347f, 0.181448f, 0.120630f, -0.174994f, -0.056983f, -0.225888f, 0.170450f, 0.028425f, 0.120931f, 0.017623f, 0.026202f, -0.090733f, -0.246026f, -0.025748f, 0.086533f, 0.069139f, 0.000000f, 0.114443f, -0.097368f, -0.327263f, -0.121119f, -0.359678f, -0.123599f, -0.101547f, 0.149358f, -0.028985f, -0.086442f, -0.070543f, -0.075348f, -0.018574f, -0.148019f, -0.140270f, -0.232586f, -0.232716f, -0.034239f, 0.168653f, 0.013276f, 0.284803f, -0.143723f, -0.034841f, 0.261215f, 0.139553f, 0.012994f, 0.056519f, -0.184131f, -0.100027f, -0.228104f, 0.058714f, 0.090099f, 0.205639f, 0.094038f, -0.461530f, -0.330455f, -0.357840f, 0.009345f, 0.055140f, 0.116079f, 0.093375f, 0.202308f, -0.297429f, 0.328212f, 0.157559f, 0.029282f, -0.180221f, -0.118485f, 0.022577f, -0.058156f, -0.106895f, 0.020202f, 0.111660f, 0.016452f, 0.143899f, 0.112067f, -0.057359f, 0.109659f, -0.221950f, -0.021186f, 0.100107f, 0.151273f, 0.021652f, 0.216036f, 0.119715f, 0.126463f, 0.125809f, -0.075106f, -0.034648f, 0.104868f, 0.015730f, 0.033580f, 0.061299f, 0.118466f, 0.028752f, 0.154490f, -0.018378f, 0.103260f, 0.103910f, -0.090128f, -0.041393f, 0.071966f, -0.237121f, 0.032349f, -0.249949f, -0.127555f, 0.004646f, -0.058100f, 0.000821f, -0.147460f, 0.061884f, 0.193874f, -0.074878f, -0.149970f, -0.104765f, 0.241938f, -0.073760f, 0.145955f, 0.150756f, -0.231506f, -0.019408f, 0.051295f, 0.041540f, 0.005027f, 0.184260f, -0.083984f, -0.228253f, 0.162229f, -0.336759f, 0.168331f, -0.308693f, 0.056796f, 0.192504f, 0.142074f, -0.121906f, -0.062823f, -0.195593f, 0.147315f, 0.164544f, -0.327183f, 0.059031f, -0.083997f, -0.160859f, 0.001325f};

#endif